{"nbformat":4,"nbformat_minor":0,"metadata":{"colab":{"name":"pytorch-b3","provenance":[{"file_id":"1HS3qbHArkqFlImT2KnF5pcMCz7ueHNvY","timestamp":1616048354213}],"collapsed_sections":[],"toc_visible":true},"kernelspec":{"name":"python3","display_name":"Python 3"},"accelerator":"GPU"},"cells":[{"cell_type":"markdown","metadata":{"id":"sqVW5Nezc8GZ"},"source":["# Bharath Gunasekaran \n","# CMPE-258 Part 2c\n"]},{"cell_type":"markdown","metadata":{"id":"T2qszXPfdAsP"},"source":["## Colab environment"]},{"cell_type":"code","metadata":{"id":"fyil1L9uLvW5"},"source":["import torch\n","import matplotlib.pyplot as plt\n","import math \n","import torch.nn as nn\n","from sklearn.manifold import TSNE"],"execution_count":null,"outputs":[]},{"cell_type":"markdown","metadata":{"id":"Oia9CLdN5Wrz"},"source":["# Generate Data"]},{"cell_type":"code","metadata":{"colab":{"base_uri":"https://localhost:8080/"},"id":"jdb0_vL2vFwx","executionInfo":{"status":"ok","timestamp":1616312883760,"user_tz":420,"elapsed":291,"user":{"displayName":"Bharath Gunasekaran Pathakkam","photoUrl":"","userId":"10771955307881458866"}},"outputId":"74014749-839c-4cb4-8d8d-6347460cba1b"},"source":["# Make non-linear data\n","\n","n = 200\n","d = 3\n","x = torch.rand(n,d)\n","\n","weights_true = torch.tensor(([5, 1,1],[1,1,1]),dtype=torch.float).T\n","weights_true\n","bias_true = torch.tensor(([1]))\n","\n","y_true = (x ** 2) @ weights_true + x @ weights_true + bias_true\n","print(f'x: {x.shape}, weights: {weights_true.shape}, bias: {bias_true.shape}, y: {y_true.shape}')"],"execution_count":null,"outputs":[{"output_type":"stream","text":["x: torch.Size([200, 3]), weights: torch.Size([3, 2]), bias: torch.Size([1]), y: torch.Size([200, 2])\n"],"name":"stdout"}]},{"cell_type":"markdown","metadata":{"id":"vq0Z_14tdra9"},"source":["# Creating Model with Pytorch Modules"]},{"cell_type":"code","metadata":{"id":"oUzGijLkOUiy","colab":{"base_uri":"https://localhost:8080/"},"executionInfo":{"status":"ok","timestamp":1616312886532,"user_tz":420,"elapsed":553,"user":{"displayName":"Bharath Gunasekaran Pathakkam","photoUrl":"","userId":"10771955307881458866"}},"outputId":"efc4ef81-9e33-481d-db1f-8d500bdf39bd"},"source":["class TorchModel(nn.Module):\n","  def __init__(self, input_dim, num_hidden):\n","    super().__init__()\n","    self.linear1 = nn.Linear(input_dim, num_hidden)\n","    self.relu1 = nn.ReLU()\n","    self.linear2 = nn.Linear(num_hidden, 2)\n","    self.relu2 = nn.ReLU()\n","    self.linear3 = nn.Linear(2, 2)\n","\n","\n","  def forward(self, x):\n","    l1 = self.linear1(x)\n","    r1 = self.relu1(l1)\n","    l2 = self.linear2(r1)\n","    r2 = self.relu2(l2)\n","    l3 = self.linear3(r2)\n","    return l3\n","\n","\n","loss = nn.MSELoss()\n","model = TorchModel(3, 10)\n","x_tensor = torch.tensor(x).float()\n","y_true_tensor = torch.tensor(y_true).float()\n","y_pred_tensor = model(x_tensor)\n","loss_value = loss(y_pred_tensor, y_true_tensor)\n","print(loss_value)"],"execution_count":null,"outputs":[{"output_type":"stream","text":["tensor(34.7827, grad_fn=<MseLossBackward>)\n"],"name":"stdout"},{"output_type":"stream","text":["/usr/local/lib/python3.7/dist-packages/ipykernel_launcher.py:22: UserWarning: To copy construct from a tensor, it is recommended to use sourceTensor.clone().detach() or sourceTensor.clone().detach().requires_grad_(True), rather than torch.tensor(sourceTensor).\n","/usr/local/lib/python3.7/dist-packages/ipykernel_launcher.py:23: UserWarning: To copy construct from a tensor, it is recommended to use sourceTensor.clone().detach() or sourceTensor.clone().detach().requires_grad_(True), rather than torch.tensor(sourceTensor).\n"],"name":"stderr"}]},{"cell_type":"code","metadata":{"id":"qDoKS0BBYlxU","colab":{"base_uri":"https://localhost:8080/"},"executionInfo":{"status":"ok","timestamp":1616312893673,"user_tz":420,"elapsed":858,"user":{"displayName":"Bharath Gunasekaran Pathakkam","photoUrl":"","userId":"10771955307881458866"}},"outputId":"66b25f47-50cd-415d-cad4-2a9ee6ec50be"},"source":["# Test just one forward and backward step\n","optimizer = torch.optim.SGD(model.parameters(), lr=0.1)\n","\n","optimizer.zero_grad()\n","y_pred_tensor = model(x_tensor)\n","loss_value = loss(y_pred_tensor, y_true_tensor)\n","print(loss_value)\n","loss_gradient = loss_value.backward()\n","optimizer.step()\n","\n","y_pred_tensor = model(x_tensor)\n","loss_value = loss(y_pred_tensor, y_true_tensor)\n","print(loss_value)"],"execution_count":null,"outputs":[{"output_type":"stream","text":["tensor(34.7827, grad_fn=<MseLossBackward>)\n","tensor(29.2011, grad_fn=<MseLossBackward>)\n"],"name":"stdout"}]},{"cell_type":"code","metadata":{"id":"Yx8hOdiRcIEJ","colab":{"base_uri":"https://localhost:8080/"},"executionInfo":{"status":"ok","timestamp":1616312897359,"user_tz":420,"elapsed":314,"user":{"displayName":"Bharath Gunasekaran Pathakkam","photoUrl":"","userId":"10771955307881458866"}},"outputId":"d464f015-4fd3-459d-9db4-02f568d8a417"},"source":["# Now we run the training loop\n","from typing import Callable\n","\n","def torch_fit(x: torch.tensor, y: torch.tensor, model: Callable, loss: Callable, lr: float, num_epochs: int):\n","  optimizer = torch.optim.SGD(model.parameters(), lr=lr)\n","  for epoch in range(num_epochs):\n","    optimizer.zero_grad()\n","    y_pred_tensor = model(x)\n","    loss_value = loss(y_pred_tensor, y)\n","    print(loss_value)\n","    loss_value.backward()\n","    optimizer.step()\n","\n","torch_fit(x_tensor, y_true_tensor, model=model, loss=loss, lr=0.01, num_epochs=40)\n","# plot_3d(x, y_true, model(x_tensor).detach())"],"execution_count":null,"outputs":[{"output_type":"stream","text":["tensor(29.2011, grad_fn=<MseLossBackward>)\n","tensor(28.7273, grad_fn=<MseLossBackward>)\n","tensor(28.2628, grad_fn=<MseLossBackward>)\n","tensor(27.8074, grad_fn=<MseLossBackward>)\n","tensor(27.3608, grad_fn=<MseLossBackward>)\n","tensor(26.9228, grad_fn=<MseLossBackward>)\n","tensor(26.4932, grad_fn=<MseLossBackward>)\n","tensor(26.0716, grad_fn=<MseLossBackward>)\n","tensor(25.6579, grad_fn=<MseLossBackward>)\n","tensor(25.2516, grad_fn=<MseLossBackward>)\n","tensor(24.8522, grad_fn=<MseLossBackward>)\n","tensor(24.4592, grad_fn=<MseLossBackward>)\n","tensor(24.0719, grad_fn=<MseLossBackward>)\n","tensor(23.6903, grad_fn=<MseLossBackward>)\n","tensor(23.3151, grad_fn=<MseLossBackward>)\n","tensor(22.9450, grad_fn=<MseLossBackward>)\n","tensor(22.5795, grad_fn=<MseLossBackward>)\n","tensor(22.2184, grad_fn=<MseLossBackward>)\n","tensor(21.8599, grad_fn=<MseLossBackward>)\n","tensor(21.5043, grad_fn=<MseLossBackward>)\n","tensor(21.1502, grad_fn=<MseLossBackward>)\n","tensor(20.7963, grad_fn=<MseLossBackward>)\n","tensor(20.4435, grad_fn=<MseLossBackward>)\n","tensor(20.0919, grad_fn=<MseLossBackward>)\n","tensor(19.7392, grad_fn=<MseLossBackward>)\n","tensor(19.3845, grad_fn=<MseLossBackward>)\n","tensor(19.0287, grad_fn=<MseLossBackward>)\n","tensor(18.6712, grad_fn=<MseLossBackward>)\n","tensor(18.3105, grad_fn=<MseLossBackward>)\n","tensor(17.9451, grad_fn=<MseLossBackward>)\n","tensor(17.5733, grad_fn=<MseLossBackward>)\n","tensor(17.1932, grad_fn=<MseLossBackward>)\n","tensor(16.8029, grad_fn=<MseLossBackward>)\n","tensor(16.4000, grad_fn=<MseLossBackward>)\n","tensor(15.9826, grad_fn=<MseLossBackward>)\n","tensor(15.5482, grad_fn=<MseLossBackward>)\n","tensor(15.0946, grad_fn=<MseLossBackward>)\n","tensor(14.6196, grad_fn=<MseLossBackward>)\n","tensor(14.1205, grad_fn=<MseLossBackward>)\n","tensor(13.5957, grad_fn=<MseLossBackward>)\n"],"name":"stdout"}]},{"cell_type":"code","metadata":{"id":"y7wSx3JIvCTA"},"source":["def plot3d(x, y, y_pred=None):\n","  import plotly.graph_objects as go\n","\n","  fig = go.Figure()\n","  fig.add_trace(go.Scatter3d(x = x[:,0],\n","                    y = x[:,1],\n","                    z = y.reshape([-1]),\n","                    opacity=0.5, mode='markers', name='Underlying Function'\n","                    ))\n"," \n","  if y_pred is not None:\n","    fig.add_trace(go.Scatter3d(x = x[:,0],\n","                   y = x[:,1],\n","                   z = y_pred.reshape([-1]),\n","                   opacity=0.5, mode='markers', name='Predicted Function'\n","                  ))\n","    \n","  fig.update_layout(scene = dict(\n","                    xaxis_title='X1',\n","                    yaxis_title='X2',\n","                    zaxis_title='Y'),\n","                    width=700,\n","                    margin=dict(r=20, b=10, l=10, t=10))\n","  fig.show()"],"execution_count":null,"outputs":[]},{"cell_type":"code","metadata":{"colab":{"base_uri":"https://localhost:8080/","height":559},"id":"acMARWjkvPmT","executionInfo":{"status":"ok","timestamp":1616312974174,"user_tz":420,"elapsed":3964,"user":{"displayName":"Bharath Gunasekaran Pathakkam","photoUrl":"","userId":"10771955307881458866"}},"outputId":"0b21890d-f144-493e-86e8-f656b9395856"},"source":["y_pred = model(x)\n","X_red = TSNE(n_components=2).fit_transform(x)\n","y_true_red = TSNE(n_components=1).fit_transform(y_true)\n","y_pred_red = TSNE(n_components=1).fit_transform(y_pred.detach().numpy())\n","print(f'X_red: {X_red.shape}, y_true_red: {y_true_red.shape}, y_pred_red: {y_pred_red.shape}')\n","\n","plot3d(X_red,y_true_red,y_pred_red)"],"execution_count":null,"outputs":[{"output_type":"stream","text":["X_red: (200, 2), y_true_red: (200, 1), y_pred_red: (200, 1)\n"],"name":"stdout"},{"output_type":"display_data","data":{"text/html":["<html>\n","<head><meta charset=\"utf-8\" /></head>\n","<body>\n","    <div>\n","            <script src=\"https://cdnjs.cloudflare.com/ajax/libs/mathjax/2.7.5/MathJax.js?config=TeX-AMS-MML_SVG\"></script><script type=\"text/javascript\">if (window.MathJax) {MathJax.Hub.Config({SVG: {font: \"STIX-Web\"}});}</script>\n","                <script type=\"text/javascript\">window.PlotlyConfig = {MathJaxConfig: 'local'};</script>\n","        <script src=\"https://cdn.plot.ly/plotly-latest.min.js\"></script>    \n","            <div id=\"69af4b02-edf6-420e-88e8-b148620a8f04\" class=\"plotly-graph-div\" style=\"height:525px; width:700px;\"></div>\n","            <script type=\"text/javascript\">\n","                \n","                    window.PLOTLYENV=window.PLOTLYENV || {};\n","                    \n","                if (document.getElementById(\"69af4b02-edf6-420e-88e8-b148620a8f04\")) {\n","                    Plotly.newPlot(\n","                        '69af4b02-edf6-420e-88e8-b148620a8f04',\n","                        [{\"mode\": \"markers\", \"name\": \"Underlying Function\", \"opacity\": 0.5, \"type\": \"scatter3d\", \"x\": [-2.135939121246338, 0.9328227043151855, -3.0421762466430664, 6.8235087394714355, 3.076849937438965, -2.412107229232788, 5.264154434204102, -5.270790100097656, 9.12568187713623, 0.9074152112007141, 7.450581073760986, -4.887158393859863, 2.186803102493286, 0.6853988170623779, -3.460620403289795, -7.353630542755127, 3.635618209838867, 0.4321425259113312, 1.5616377592086792, -4.987942695617676, 8.270781517028809, 0.2900804579257965, -0.5754940509796143, -0.350963830947876, 3.963383197784424, -0.27094754576683044, 3.378391742706299, -5.987213611602783, -1.9193980693817139, -5.387351989746094, 5.491082191467285, -6.42447566986084, 0.13412640988826752, -5.237613677978516, 3.736783742904663, 3.0418457984924316, -0.39687350392341614, 6.053878307342529, 4.036998748779297, 3.966783285140991, -3.8592231273651123, 1.3065590858459473, -8.93856430053711, -2.8515191078186035, 6.095712661743164, -4.704648971557617, -6.827694416046143, 2.2004170417785645, -2.733750104904175, 7.476174831390381, -10.281474113464355, -5.864423751831055, -8.848538398742676, -0.8510273098945618, 0.9939101338386536, 7.698578834533691, -8.001649856567383, -9.71432876586914, -11.311992645263672, 4.731215476989746, -9.49582576751709, -9.117154121398926, 4.027355194091797, -3.3646318912506104, 0.21929673850536346, 3.989731550216675, 2.2609922885894775, 2.2677414417266846, -3.807467460632324, -8.389974594116211, 2.547667980194092, -6.386781215667725, 1.2924305200576782, 1.6436479091644287, -8.593650817871094, 8.304965019226074, -5.001435279846191, 1.6229512691497803, 8.476609230041504, 0.2965220510959625, 4.081773281097412, 0.707270085811615, 1.4894484281539917, -7.474327087402344, 1.7872233390808105, 4.70457649230957, -2.043992280960083, -4.59488582611084, -6.44310998916626, -4.066654682159424, -7.239092826843262, 1.3647328615188599, 1.890100121498108, -0.2967197597026825, 1.950019121170044, -5.008382797241211, -5.596961975097656, -3.888005018234253, -3.60569167137146, 6.57501220703125, -4.152603626251221, 4.896742343902588, -2.4792511463165283, 4.252478122711182, 5.738457202911377, -0.12811538577079773, -3.9824306964874268, -3.535234212875366, -8.370481491088867, 6.254406452178955, -1.1495587825775146, -2.309790849685669, 0.904840886592865, 2.6568124294281006, 7.315676212310791, -1.0914647579193115, -0.6886626482009888, 3.5217113494873047, -1.5885937213897705, -6.892326354980469, -6.4618377685546875, 4.199377536773682, -3.755225658416748, 7.0648193359375, -4.933364391326904, -0.528637170791626, -3.0493013858795166, -2.898988962173462, 8.873753547668457, -2.886028289794922, -3.175985097885132, -6.788759231567383, 2.158491849899292, -0.19028018414974213, 0.14139558374881744, 4.2867865562438965, -4.689659118652344, -2.6046271324157715, 3.9498417377471924, 0.8260177373886108, 0.7741664052009583, 8.63795280456543, -2.3574113845825195, -7.127434253692627, -3.546207904815674, -1.1663146018981934, 1.8949387073516846, -2.5935096740722656, 7.814184665679932, 5.319850444793701, 5.831467628479004, -3.976034164428711, -3.32969331741333, 3.2625558376312256, -9.52308177947998, -4.206958293914795, -6.729275226593018, 2.7402701377868652, 4.679968357086182, -6.70697021484375, 2.232611656188965, -4.678470611572266, -0.5559344291687012, -0.7950596213340759, 0.9733752012252808, -4.189881324768066, -0.843414306640625, 4.238802909851074, -7.881509780883789, 0.5968579053878784, -8.323982238769531, -1.1581497192382812, -6.259439468383789, 4.36124324798584, 8.722070693969727, -7.593456745147705, 4.045318603515625, -4.2761640548706055, 1.7757160663604736, -0.4112246036529541, 6.438580513000488, 5.0065460205078125, -3.1564290523529053, 4.161495208740234, -1.632453203201294, 2.9610700607299805, 0.3105495274066925, 7.627498626708984, -2.2981550693511963, -0.05198947340250015, -7.117315769195557, -1.9480630159378052, -0.9969419836997986, 3.7642581462860107, 8.050692558288574, -0.5142048001289368, 5.950521945953369, 2.9158129692077637, 1.2112704515457153, 4.725081920623779], \"y\": [-0.6666871905326843, -6.731439113616943, -11.846382141113281, 2.7098124027252197, 10.776618957519531, -10.807371139526367, 4.773921966552734, -11.977126121520996, 8.084904670715332, -10.823186874389648, 7.693115234375, -11.575199127197266, 1.0899217128753662, -7.430524826049805, -7.439987659454346, -2.942805767059326, -0.969444751739502, 6.918703556060791, 12.342351913452148, -9.729269027709961, 9.131343841552734, 12.620050430297852, 12.035309791564941, 7.177934646606445, -3.1664586067199707, 9.730298042297363, -3.9681015014648438, -1.1721773147583008, -12.05424690246582, -9.460792541503906, 9.00735855102539, -0.8769426345825195, -11.555656433105469, -10.643285751342773, -5.048158168792725, -2.7733047008514404, -1.8807655572891235, 1.4064117670059204, -2.2980306148529053, 10.50853443145752, 3.115082025527954, 1.6439392566680908, -6.954434394836426, 8.627126693725586, 5.643765449523926, -8.8040771484375, -4.545266628265381, -6.945909023284912, 9.693835258483887, 3.3545279502868652, -8.099809646606445, -5.615407943725586, -4.401866912841797, 1.1304306983947754, -5.189628601074219, 6.194252014160156, -7.618037223815918, -8.574119567871094, -7.256136417388916, 9.258807182312012, -8.637702941894531, -7.43849515914917, 8.028266906738281, 4.291896343231201, 9.625696182250977, -6.360802173614502, -8.254589080810547, -5.5629801750183105, 5.165661811828613, -6.243931293487549, -4.922073841094971, -6.754369735717773, 11.53875732421875, 2.4329330921173096, -8.610684394836426, 7.0151472091674805, 4.061274528503418, -10.572103500366211, 9.461563110351562, -2.1851353645324707, 9.346517562866211, 7.809979438781738, -8.329244613647461, -6.859316349029541, -7.539779186248779, 10.961185455322266, 2.8253986835479736, 1.5399798154830933, -2.089787244796753, 2.5511679649353027, -1.2759900093078613, -2.7402377128601074, 11.103804588317871, 12.86558723449707, -9.196170806884766, 2.6622438430786133, -10.957282066345215, -2.2734713554382324, 8.242189407348633, 5.2487945556640625, -3.2228615283966064, 4.626280307769775, 9.134251594543457, 0.5191741585731506, 2.0593340396881104, 0.08389779925346375, 4.724765300750732, 3.744283437728882, -4.967933654785156, 3.037177085876465, -6.089053153991699, 3.471471071243286, -10.05778694152832, -6.172158241271973, 9.132941246032715, 9.45284652709961, -7.883230686187744, -2.2705190181732178, 11.120622634887695, -5.169076442718506, -11.116100311279297, 5.213637828826904, -8.00301456451416, 2.243847370147705, 1.981054425239563, 8.72835636138916, -1.206202507019043, -0.003729922231286764, 8.777877807617188, 7.627996444702148, 1.0800031423568726, -3.1625804901123047, 11.756473541259766, -6.234635353088379, 1.0111428499221802, 2.872596025466919, -7.85515022277832, -0.07754483073949814, 0.12806729972362518, 10.16201400756836, 8.554539680480957, 6.82765531539917, -12.683138847351074, -5.98685884475708, -10.86771011352539, 1.922237753868103, 10.374982833862305, 4.4350690841674805, 3.968801975250244, 9.739575386047363, 3.231187582015991, -0.7918859720230103, 1.7676141262054443, 0.9036663770675659, -6.521872520446777, -9.324934959411621, -9.034260749816895, 10.125678062438965, -2.224722146987915, -9.713889122009277, 12.467564582824707, -2.3018321990966797, 4.654139518737793, 10.985527992248535, -11.497745513916016, -12.093231201171875, 6.631427764892578, -6.7342939376831055, -5.5155415534973145, 9.224246978759766, -3.3201749324798584, 10.34300422668457, -4.431515693664551, 4.318518161773682, 8.146492004394531, -1.3720134496688843, 11.400190353393555, -9.992700576782227, -11.224447250366211, -3.652514934539795, 2.165479898452759, 6.741186141967773, 5.70077657699585, -4.870646953582764, -11.317511558532715, -7.061871528625488, -6.767266273498535, 5.0649614334106445, 8.541829109191895, -12.44510269165039, -1.8484874963760376, 1.345310091972351, -11.25498104095459, -1.5350768566131592, 8.228601455688477, -12.567631721496582, 4.681188106536865, -0.0668526142835617, -8.434002876281738, 9.741241455078125], \"z\": [-6.5403265953063965, 7.137247562408447, 6.537205696105957, 9.605072021484375, -2.838231086730957, 6.618996620178223, 3.366530418395996, 4.135145664215088, 2.594163417816162, 14.974672317504883, 14.721125602722168, 2.1423957347869873, -4.698974609375, 7.170226573944092, 0.9733232855796814, -10.992115020751953, 5.0389485359191895, -6.238193511962891, -7.3559370040893555, 1.179809331893921, 6.465432643890381, -10.785713195800781, -9.931208610534668, -12.1670503616333, 11.435818672180176, -11.416382789611816, 8.034667015075684, -15.280217170715332, 13.172840118408203, -1.3249369859695435, 3.238571882247925, -12.05296802520752, 15.229869842529297, 1.6331086158752441, 10.544527053833008, 10.073918342590332, -1.1924387216567993, 9.851018905639648, 10.948334693908691, 1.3841699361801147, -17.179874420166016, -5.0148491859436035, -9.097570419311523, -16.151941299438477, 7.804975509643555, 1.2174930572509766, -11.493680000305176, 12.325109481811523, -15.608197212219238, 10.938287734985352, -10.496780395507812, -11.191458702087402, -4.000458717346191, -6.997766017913818, 3.5951809883117676, 12.087800025939941, -9.422877311706543, -9.346009254455566, -9.941169738769531, 2.4266371726989746, -9.23405647277832, -9.517045974731445, -1.017016887664795, -17.030658721923828, -7.628493785858154, 7.392597675323486, 13.86648941040039, 11.007546424865723, -17.112340927124023, -9.507864952087402, 9.622966766357422, -5.635910511016846, -6.808533191680908, -4.756174087524414, -4.128777980804443, 12.518139839172363, -16.02585792541504, 14.188790321350098, 3.7363905906677246, -0.7196246981620789, 0.5026146173477173, -6.162115097045898, 12.921106338500977, -10.319695472717285, 12.546282768249512, 2.855787754058838, -15.108378410339355, -16.0417537689209, -14.721266746520996, -16.683828353881836, -11.69225788116455, 2.869896650314331, -3.304996967315674, -11.679693222045898, 14.7181978225708, -16.441612243652344, 1.7621126174926758, -5.911728382110596, -15.792399406433105, 7.949361324310303, -3.1900458335876465, 2.8036420345306396, -15.453481674194336, 8.83121395111084, 9.368155479431152, -4.667027473449707, -17.13462257385254, -17.29448127746582, -8.353967666625977, 8.462849617004395, 1.9822356700897217, -16.08963966369629, 14.824094772338867, 10.497453689575195, 6.885165691375732, -12.259050369262695, 6.164313316345215, 9.273571014404297, -8.81659984588623, -8.382744789123535, 1.327359914779663, -0.5957983136177063, 1.459560751914978, 11.322391510009766, -16.58464813232422, -12.484307289123535, -6.784148216247559, -7.342410564422607, 6.589852809906006, 17.912431716918945, -13.529504776000977, -12.767691612243652, -4.000619411468506, 3.998410224914551, -5.067719459533691, 0.0013928305124863982, -1.8586584329605103, -7.504659175872803, 8.399259567260742, -6.687138080596924, -6.7865986824035645, 11.876808166503906, 12.911449432373047, -10.427033424377441, 5.740755081176758, -13.223931312561035, -3.129467725753784, -16.802553176879883, 13.994712829589844, 2.8686702251434326, 8.547329902648926, -12.42613410949707, -15.074373245239258, 0.012449710629880428, -9.14411735534668, 1.7723560333251953, -1.9731335639953613, -2.6835014820098877, 11.083762168884277, -2.0592801570892334, -5.412708759307861, -6.588273048400879, -13.17957592010498, -8.130254745483398, 14.475407600402832, 5.950596332550049, -12.989324569702148, 13.87276554107666, -10.831872940063477, -7.151949882507324, -8.872247695922852, -8.47046184539795, -12.269354820251465, 0.17283375561237335, 6.567617893218994, -10.934561729431152, -1.3615174293518066, 2.2741482257843018, 12.880894660949707, -0.6316320896148682, 10.356118202209473, 0.9719594120979309, -16.334442138671875, 10.893272399902344, 12.688100814819336, 14.096739768981934, 5.799266338348389, 11.683975219726562, -15.654767990112305, 15.33431625366211, -14.82216739654541, -13.076726913452148, 13.122023582458496, 8.349605560302734, 7.131352424621582, 15.282173156738281, 8.101239204406738, 0.12027141451835632, 12.467041969299316, 2.6786751747131348]}, {\"mode\": \"markers\", \"name\": \"Predicted Function\", \"opacity\": 0.5, \"type\": \"scatter3d\", \"x\": [-2.135939121246338, 0.9328227043151855, -3.0421762466430664, 6.8235087394714355, 3.076849937438965, -2.412107229232788, 5.264154434204102, -5.270790100097656, 9.12568187713623, 0.9074152112007141, 7.450581073760986, -4.887158393859863, 2.186803102493286, 0.6853988170623779, -3.460620403289795, -7.353630542755127, 3.635618209838867, 0.4321425259113312, 1.5616377592086792, -4.987942695617676, 8.270781517028809, 0.2900804579257965, -0.5754940509796143, -0.350963830947876, 3.963383197784424, -0.27094754576683044, 3.378391742706299, -5.987213611602783, -1.9193980693817139, -5.387351989746094, 5.491082191467285, -6.42447566986084, 0.13412640988826752, -5.237613677978516, 3.736783742904663, 3.0418457984924316, -0.39687350392341614, 6.053878307342529, 4.036998748779297, 3.966783285140991, -3.8592231273651123, 1.3065590858459473, -8.93856430053711, -2.8515191078186035, 6.095712661743164, -4.704648971557617, -6.827694416046143, 2.2004170417785645, -2.733750104904175, 7.476174831390381, -10.281474113464355, -5.864423751831055, -8.848538398742676, -0.8510273098945618, 0.9939101338386536, 7.698578834533691, -8.001649856567383, -9.71432876586914, -11.311992645263672, 4.731215476989746, -9.49582576751709, -9.117154121398926, 4.027355194091797, -3.3646318912506104, 0.21929673850536346, 3.989731550216675, 2.2609922885894775, 2.2677414417266846, -3.807467460632324, -8.389974594116211, 2.547667980194092, -6.386781215667725, 1.2924305200576782, 1.6436479091644287, -8.593650817871094, 8.304965019226074, -5.001435279846191, 1.6229512691497803, 8.476609230041504, 0.2965220510959625, 4.081773281097412, 0.707270085811615, 1.4894484281539917, -7.474327087402344, 1.7872233390808105, 4.70457649230957, -2.043992280960083, -4.59488582611084, -6.44310998916626, -4.066654682159424, -7.239092826843262, 1.3647328615188599, 1.890100121498108, -0.2967197597026825, 1.950019121170044, -5.008382797241211, -5.596961975097656, -3.888005018234253, -3.60569167137146, 6.57501220703125, -4.152603626251221, 4.896742343902588, -2.4792511463165283, 4.252478122711182, 5.738457202911377, -0.12811538577079773, -3.9824306964874268, -3.535234212875366, -8.370481491088867, 6.254406452178955, -1.1495587825775146, -2.309790849685669, 0.904840886592865, 2.6568124294281006, 7.315676212310791, -1.0914647579193115, -0.6886626482009888, 3.5217113494873047, -1.5885937213897705, -6.892326354980469, -6.4618377685546875, 4.199377536773682, -3.755225658416748, 7.0648193359375, -4.933364391326904, -0.528637170791626, -3.0493013858795166, -2.898988962173462, 8.873753547668457, -2.886028289794922, -3.175985097885132, -6.788759231567383, 2.158491849899292, -0.19028018414974213, 0.14139558374881744, 4.2867865562438965, -4.689659118652344, -2.6046271324157715, 3.9498417377471924, 0.8260177373886108, 0.7741664052009583, 8.63795280456543, -2.3574113845825195, -7.127434253692627, -3.546207904815674, -1.1663146018981934, 1.8949387073516846, -2.5935096740722656, 7.814184665679932, 5.319850444793701, 5.831467628479004, -3.976034164428711, -3.32969331741333, 3.2625558376312256, -9.52308177947998, -4.206958293914795, -6.729275226593018, 2.7402701377868652, 4.679968357086182, -6.70697021484375, 2.232611656188965, -4.678470611572266, -0.5559344291687012, -0.7950596213340759, 0.9733752012252808, -4.189881324768066, -0.843414306640625, 4.238802909851074, -7.881509780883789, 0.5968579053878784, -8.323982238769531, -1.1581497192382812, -6.259439468383789, 4.36124324798584, 8.722070693969727, -7.593456745147705, 4.045318603515625, -4.2761640548706055, 1.7757160663604736, -0.4112246036529541, 6.438580513000488, 5.0065460205078125, -3.1564290523529053, 4.161495208740234, -1.632453203201294, 2.9610700607299805, 0.3105495274066925, 7.627498626708984, -2.2981550693511963, -0.05198947340250015, -7.117315769195557, -1.9480630159378052, -0.9969419836997986, 3.7642581462860107, 8.050692558288574, -0.5142048001289368, 5.950521945953369, 2.9158129692077637, 1.2112704515457153, 4.725081920623779], \"y\": [-0.6666871905326843, -6.731439113616943, -11.846382141113281, 2.7098124027252197, 10.776618957519531, -10.807371139526367, 4.773921966552734, -11.977126121520996, 8.084904670715332, -10.823186874389648, 7.693115234375, -11.575199127197266, 1.0899217128753662, -7.430524826049805, -7.439987659454346, -2.942805767059326, -0.969444751739502, 6.918703556060791, 12.342351913452148, -9.729269027709961, 9.131343841552734, 12.620050430297852, 12.035309791564941, 7.177934646606445, -3.1664586067199707, 9.730298042297363, -3.9681015014648438, -1.1721773147583008, -12.05424690246582, -9.460792541503906, 9.00735855102539, -0.8769426345825195, -11.555656433105469, -10.643285751342773, -5.048158168792725, -2.7733047008514404, -1.8807655572891235, 1.4064117670059204, -2.2980306148529053, 10.50853443145752, 3.115082025527954, 1.6439392566680908, -6.954434394836426, 8.627126693725586, 5.643765449523926, -8.8040771484375, -4.545266628265381, -6.945909023284912, 9.693835258483887, 3.3545279502868652, -8.099809646606445, -5.615407943725586, -4.401866912841797, 1.1304306983947754, -5.189628601074219, 6.194252014160156, -7.618037223815918, -8.574119567871094, -7.256136417388916, 9.258807182312012, -8.637702941894531, -7.43849515914917, 8.028266906738281, 4.291896343231201, 9.625696182250977, -6.360802173614502, -8.254589080810547, -5.5629801750183105, 5.165661811828613, -6.243931293487549, -4.922073841094971, -6.754369735717773, 11.53875732421875, 2.4329330921173096, -8.610684394836426, 7.0151472091674805, 4.061274528503418, -10.572103500366211, 9.461563110351562, -2.1851353645324707, 9.346517562866211, 7.809979438781738, -8.329244613647461, -6.859316349029541, -7.539779186248779, 10.961185455322266, 2.8253986835479736, 1.5399798154830933, -2.089787244796753, 2.5511679649353027, -1.2759900093078613, -2.7402377128601074, 11.103804588317871, 12.86558723449707, -9.196170806884766, 2.6622438430786133, -10.957282066345215, -2.2734713554382324, 8.242189407348633, 5.2487945556640625, -3.2228615283966064, 4.626280307769775, 9.134251594543457, 0.5191741585731506, 2.0593340396881104, 0.08389779925346375, 4.724765300750732, 3.744283437728882, -4.967933654785156, 3.037177085876465, -6.089053153991699, 3.471471071243286, -10.05778694152832, -6.172158241271973, 9.132941246032715, 9.45284652709961, -7.883230686187744, -2.2705190181732178, 11.120622634887695, -5.169076442718506, -11.116100311279297, 5.213637828826904, -8.00301456451416, 2.243847370147705, 1.981054425239563, 8.72835636138916, -1.206202507019043, -0.003729922231286764, 8.777877807617188, 7.627996444702148, 1.0800031423568726, -3.1625804901123047, 11.756473541259766, -6.234635353088379, 1.0111428499221802, 2.872596025466919, -7.85515022277832, -0.07754483073949814, 0.12806729972362518, 10.16201400756836, 8.554539680480957, 6.82765531539917, -12.683138847351074, -5.98685884475708, -10.86771011352539, 1.922237753868103, 10.374982833862305, 4.4350690841674805, 3.968801975250244, 9.739575386047363, 3.231187582015991, -0.7918859720230103, 1.7676141262054443, 0.9036663770675659, -6.521872520446777, -9.324934959411621, -9.034260749816895, 10.125678062438965, -2.224722146987915, -9.713889122009277, 12.467564582824707, -2.3018321990966797, 4.654139518737793, 10.985527992248535, -11.497745513916016, -12.093231201171875, 6.631427764892578, -6.7342939376831055, -5.5155415534973145, 9.224246978759766, -3.3201749324798584, 10.34300422668457, -4.431515693664551, 4.318518161773682, 8.146492004394531, -1.3720134496688843, 11.400190353393555, -9.992700576782227, -11.224447250366211, -3.652514934539795, 2.165479898452759, 6.741186141967773, 5.70077657699585, -4.870646953582764, -11.317511558532715, -7.061871528625488, -6.767266273498535, 5.0649614334106445, 8.541829109191895, -12.44510269165039, -1.8484874963760376, 1.345310091972351, -11.25498104095459, -1.5350768566131592, 8.228601455688477, -12.567631721496582, 4.681188106536865, -0.0668526142835617, -8.434002876281738, 9.741241455078125], \"z\": [1.7574976682662964, -8.514396667480469, -18.23301887512207, 15.30132007598877, 7.426881790161133, -16.112817764282227, 9.077902793884277, -16.005250930786133, -2.922327995300293, -10.379853248596191, -6.398367881774902, -11.952765464782715, 15.739730834960938, -11.047426223754883, -14.889827728271484, -11.703640937805176, 11.807106018066406, 1.433915138244629, 8.769113540649414, -10.094037055969238, -7.25174617767334, 0.19577988982200623, -3.779621124267578, 4.298153400421143, 5.225790023803711, 3.6056578159332275, 5.392266273498535, -4.490484714508057, -18.154733657836914, -9.72464370727539, 1.2617905139923096, -6.401369094848633, -16.23758888244629, -15.270720481872559, 0.5931804776191711, 1.5605390071868896, -1.511258840560913, 15.66724967956543, 8.72611141204834, 5.342641353607178, 12.410168647766113, 14.809006690979004, -17.38201904296875, 8.69979190826416, 5.631045818328857, -15.597806930541992, -7.1315598487854, -7.551538467407227, 4.05757474899292, 14.86564826965332, -12.122908592224121, -4.092438220977783, -17.737775802612305, 11.34511661529541, -4.778501033782959, 2.6795685291290283, -10.407184600830078, -16.898054122924805, -6.948612689971924, 3.6622977256774902, -17.341928482055664, -17.219690322875977, 1.7572171688079834, 12.851106643676758, 3.8031651973724365, -8.882144927978516, -10.787822723388672, -2.9577486515045166, 11.113386154174805, 18.47934913635254, -1.8620444536209106, -8.239591598510742, 5.937853813171387, 12.918514251708984, -17.9625244140625, -2.6656699180603027, 2.1739957332611084, -7.569794654846191, -6.453118324279785, 1.4054014682769775, 5.963980197906494, 5.124857425689697, -11.383390426635742, -9.02631950378418, -11.605464935302734, 11.58692741394043, 13.876110076904297, 5.900121688842773, -7.667302131652832, 10.025583267211914, -12.807563781738281, 1.2376645803451538, -1.1435954570770264, -0.7818922996520996, -11.27295970916748, 2.214022636413574, -16.336109161376953, -6.009173393249512, -0.01219154242426157, 9.721481323242188, -11.315032005310059, 8.221464157104492, 2.4529690742492676, 15.577973365783691, 14.544938087463379, 8.454358100891113, -20.99047088623047, 13.557872772216797, -15.265527725219727, 14.404889106750488, -13.866336822509766, 14.696786880493164, -13.003893852233887, -5.572572231292725, -3.371424436569214, 2.945463180541992, -13.819191932678223, 7.630532264709473, -4.944912433624268, -8.404170036315918, -17.646045684814453, 11.910076141357422, -16.521686553955078, 14.35146427154541, 4.300980091094971, 8.402655601501465, 0.21334940195083618, -0.46067699790000916, -6.931591033935547, 10.077449798583984, 3.342414140701294, -8.930354118347168, 3.3926749229431152, -11.980029106140137, 12.064303398132324, 13.802520751953125, -13.036821365356445, 1.1353471279144287, 15.213850021362305, 2.910466432571411, 9.707551002502441, -2.702528953552246, 18.47092056274414, -8.945484161376953, -16.4593563079834, 12.99890422821045, -1.6957378387451172, 14.897696495056152, 13.091764450073242, 1.5203295946121216, 13.230563163757324, -1.555142879486084, 5.668234348297119, 15.831304550170898, -18.538307189941406, -16.949357986450195, -17.83812141418457, 2.842571496963501, 11.395841598510742, -16.693359375, 7.858931541442871, -7.670843601226807, 14.9537935256958, -3.549215078353882, -9.969715118408203, -14.687928199768066, 9.229801177978516, -7.637153148651123, -12.100290298461914, 5.840259552001953, -16.925153732299805, -2.4915969371795654, -4.858562469482422, 7.7252044677734375, -4.554368019104004, -13.53520393371582, 12.831534385681152, -12.285931587219238, -6.860898971557617, -3.6781067848205566, 14.768455505371094, 5.271597385406494, 10.817084312438965, 2.4156408309936523, -15.27725887298584, -3.5287153720855713, -9.906254768371582, 9.873175621032715, 6.491304397583008, -17.043251037597656, -11.510111808776855, 9.566743850708008, -15.904175758361816, 10.582718849182129, -3.5738654136657715, -17.953031539916992, 8.038369178771973, 13.636248588562012, -8.996964454650879, 5.217682361602783]}],\n","                        {\"margin\": {\"b\": 10, \"l\": 10, \"r\": 20, \"t\": 10}, \"scene\": {\"xaxis\": {\"title\": {\"text\": \"X1\"}}, \"yaxis\": {\"title\": {\"text\": \"X2\"}}, \"zaxis\": {\"title\": {\"text\": \"Y\"}}}, \"template\": {\"data\": {\"bar\": [{\"error_x\": {\"color\": \"#2a3f5f\"}, \"error_y\": {\"color\": \"#2a3f5f\"}, \"marker\": {\"line\": {\"color\": \"#E5ECF6\", \"width\": 0.5}}, \"type\": \"bar\"}], \"barpolar\": [{\"marker\": {\"line\": {\"color\": \"#E5ECF6\", \"width\": 0.5}}, \"type\": \"barpolar\"}], \"carpet\": [{\"aaxis\": {\"endlinecolor\": \"#2a3f5f\", \"gridcolor\": \"white\", \"linecolor\": \"white\", \"minorgridcolor\": \"white\", \"startlinecolor\": \"#2a3f5f\"}, \"baxis\": {\"endlinecolor\": \"#2a3f5f\", \"gridcolor\": \"white\", \"linecolor\": \"white\", \"minorgridcolor\": \"white\", \"startlinecolor\": \"#2a3f5f\"}, \"type\": \"carpet\"}], \"choropleth\": [{\"colorbar\": {\"outlinewidth\": 0, \"ticks\": \"\"}, \"type\": \"choropleth\"}], \"contour\": [{\"colorbar\": {\"outlinewidth\": 0, \"ticks\": \"\"}, \"colorscale\": [[0.0, \"#0d0887\"], [0.1111111111111111, \"#46039f\"], [0.2222222222222222, \"#7201a8\"], [0.3333333333333333, \"#9c179e\"], [0.4444444444444444, \"#bd3786\"], [0.5555555555555556, \"#d8576b\"], [0.6666666666666666, \"#ed7953\"], [0.7777777777777778, \"#fb9f3a\"], [0.8888888888888888, \"#fdca26\"], [1.0, \"#f0f921\"]], \"type\": \"contour\"}], \"contourcarpet\": [{\"colorbar\": {\"outlinewidth\": 0, \"ticks\": \"\"}, \"type\": \"contourcarpet\"}], \"heatmap\": [{\"colorbar\": {\"outlinewidth\": 0, \"ticks\": \"\"}, \"colorscale\": [[0.0, \"#0d0887\"], [0.1111111111111111, \"#46039f\"], [0.2222222222222222, \"#7201a8\"], [0.3333333333333333, \"#9c179e\"], [0.4444444444444444, \"#bd3786\"], [0.5555555555555556, \"#d8576b\"], [0.6666666666666666, \"#ed7953\"], [0.7777777777777778, \"#fb9f3a\"], [0.8888888888888888, \"#fdca26\"], [1.0, \"#f0f921\"]], \"type\": \"heatmap\"}], \"heatmapgl\": [{\"colorbar\": {\"outlinewidth\": 0, \"ticks\": \"\"}, \"colorscale\": [[0.0, \"#0d0887\"], [0.1111111111111111, \"#46039f\"], [0.2222222222222222, \"#7201a8\"], [0.3333333333333333, \"#9c179e\"], [0.4444444444444444, \"#bd3786\"], [0.5555555555555556, \"#d8576b\"], [0.6666666666666666, \"#ed7953\"], [0.7777777777777778, \"#fb9f3a\"], [0.8888888888888888, \"#fdca26\"], [1.0, \"#f0f921\"]], \"type\": \"heatmapgl\"}], \"histogram\": [{\"marker\": {\"colorbar\": {\"outlinewidth\": 0, \"ticks\": \"\"}}, \"type\": \"histogram\"}], \"histogram2d\": [{\"colorbar\": {\"outlinewidth\": 0, \"ticks\": \"\"}, \"colorscale\": [[0.0, \"#0d0887\"], [0.1111111111111111, \"#46039f\"], [0.2222222222222222, \"#7201a8\"], [0.3333333333333333, \"#9c179e\"], [0.4444444444444444, \"#bd3786\"], [0.5555555555555556, \"#d8576b\"], [0.6666666666666666, \"#ed7953\"], [0.7777777777777778, \"#fb9f3a\"], [0.8888888888888888, \"#fdca26\"], [1.0, \"#f0f921\"]], \"type\": \"histogram2d\"}], \"histogram2dcontour\": [{\"colorbar\": {\"outlinewidth\": 0, \"ticks\": \"\"}, \"colorscale\": [[0.0, \"#0d0887\"], [0.1111111111111111, \"#46039f\"], [0.2222222222222222, \"#7201a8\"], [0.3333333333333333, \"#9c179e\"], [0.4444444444444444, \"#bd3786\"], [0.5555555555555556, \"#d8576b\"], [0.6666666666666666, \"#ed7953\"], [0.7777777777777778, \"#fb9f3a\"], [0.8888888888888888, \"#fdca26\"], [1.0, \"#f0f921\"]], \"type\": \"histogram2dcontour\"}], \"mesh3d\": [{\"colorbar\": {\"outlinewidth\": 0, \"ticks\": \"\"}, \"type\": \"mesh3d\"}], \"parcoords\": [{\"line\": {\"colorbar\": {\"outlinewidth\": 0, \"ticks\": \"\"}}, \"type\": \"parcoords\"}], \"pie\": [{\"automargin\": true, \"type\": \"pie\"}], \"scatter\": [{\"marker\": {\"colorbar\": {\"outlinewidth\": 0, \"ticks\": \"\"}}, \"type\": \"scatter\"}], \"scatter3d\": [{\"line\": {\"colorbar\": {\"outlinewidth\": 0, \"ticks\": \"\"}}, \"marker\": {\"colorbar\": {\"outlinewidth\": 0, \"ticks\": \"\"}}, \"type\": \"scatter3d\"}], \"scattercarpet\": [{\"marker\": {\"colorbar\": {\"outlinewidth\": 0, \"ticks\": \"\"}}, \"type\": \"scattercarpet\"}], \"scattergeo\": [{\"marker\": {\"colorbar\": {\"outlinewidth\": 0, \"ticks\": \"\"}}, \"type\": \"scattergeo\"}], \"scattergl\": [{\"marker\": {\"colorbar\": {\"outlinewidth\": 0, \"ticks\": \"\"}}, \"type\": \"scattergl\"}], \"scattermapbox\": [{\"marker\": {\"colorbar\": {\"outlinewidth\": 0, \"ticks\": \"\"}}, \"type\": \"scattermapbox\"}], \"scatterpolar\": [{\"marker\": {\"colorbar\": {\"outlinewidth\": 0, \"ticks\": \"\"}}, \"type\": \"scatterpolar\"}], \"scatterpolargl\": [{\"marker\": {\"colorbar\": {\"outlinewidth\": 0, \"ticks\": \"\"}}, \"type\": \"scatterpolargl\"}], \"scatterternary\": [{\"marker\": {\"colorbar\": {\"outlinewidth\": 0, \"ticks\": \"\"}}, \"type\": \"scatterternary\"}], \"surface\": [{\"colorbar\": {\"outlinewidth\": 0, \"ticks\": \"\"}, \"colorscale\": [[0.0, \"#0d0887\"], [0.1111111111111111, \"#46039f\"], [0.2222222222222222, \"#7201a8\"], [0.3333333333333333, \"#9c179e\"], [0.4444444444444444, \"#bd3786\"], [0.5555555555555556, \"#d8576b\"], [0.6666666666666666, \"#ed7953\"], [0.7777777777777778, \"#fb9f3a\"], [0.8888888888888888, \"#fdca26\"], [1.0, \"#f0f921\"]], \"type\": \"surface\"}], \"table\": [{\"cells\": {\"fill\": {\"color\": \"#EBF0F8\"}, \"line\": {\"color\": \"white\"}}, \"header\": {\"fill\": {\"color\": \"#C8D4E3\"}, \"line\": {\"color\": \"white\"}}, \"type\": \"table\"}]}, \"layout\": {\"annotationdefaults\": {\"arrowcolor\": \"#2a3f5f\", \"arrowhead\": 0, \"arrowwidth\": 1}, \"coloraxis\": {\"colorbar\": {\"outlinewidth\": 0, \"ticks\": \"\"}}, \"colorscale\": {\"diverging\": [[0, \"#8e0152\"], [0.1, \"#c51b7d\"], [0.2, \"#de77ae\"], [0.3, \"#f1b6da\"], [0.4, \"#fde0ef\"], [0.5, \"#f7f7f7\"], [0.6, \"#e6f5d0\"], [0.7, \"#b8e186\"], [0.8, \"#7fbc41\"], [0.9, \"#4d9221\"], [1, \"#276419\"]], \"sequential\": [[0.0, \"#0d0887\"], [0.1111111111111111, \"#46039f\"], [0.2222222222222222, \"#7201a8\"], [0.3333333333333333, \"#9c179e\"], [0.4444444444444444, \"#bd3786\"], [0.5555555555555556, \"#d8576b\"], [0.6666666666666666, \"#ed7953\"], [0.7777777777777778, \"#fb9f3a\"], [0.8888888888888888, \"#fdca26\"], [1.0, \"#f0f921\"]], \"sequentialminus\": [[0.0, \"#0d0887\"], [0.1111111111111111, \"#46039f\"], [0.2222222222222222, \"#7201a8\"], [0.3333333333333333, \"#9c179e\"], [0.4444444444444444, \"#bd3786\"], [0.5555555555555556, \"#d8576b\"], [0.6666666666666666, \"#ed7953\"], [0.7777777777777778, \"#fb9f3a\"], [0.8888888888888888, \"#fdca26\"], [1.0, \"#f0f921\"]]}, \"colorway\": [\"#636efa\", \"#EF553B\", \"#00cc96\", \"#ab63fa\", \"#FFA15A\", \"#19d3f3\", \"#FF6692\", \"#B6E880\", \"#FF97FF\", \"#FECB52\"], \"font\": {\"color\": \"#2a3f5f\"}, \"geo\": {\"bgcolor\": \"white\", \"lakecolor\": \"white\", \"landcolor\": \"#E5ECF6\", \"showlakes\": true, \"showland\": true, \"subunitcolor\": \"white\"}, \"hoverlabel\": {\"align\": \"left\"}, \"hovermode\": \"closest\", \"mapbox\": {\"style\": \"light\"}, \"paper_bgcolor\": \"white\", \"plot_bgcolor\": \"#E5ECF6\", \"polar\": {\"angularaxis\": {\"gridcolor\": \"white\", \"linecolor\": \"white\", \"ticks\": \"\"}, \"bgcolor\": \"#E5ECF6\", \"radialaxis\": {\"gridcolor\": \"white\", \"linecolor\": \"white\", \"ticks\": \"\"}}, \"scene\": {\"xaxis\": {\"backgroundcolor\": \"#E5ECF6\", \"gridcolor\": \"white\", \"gridwidth\": 2, \"linecolor\": \"white\", \"showbackground\": true, \"ticks\": \"\", \"zerolinecolor\": \"white\"}, \"yaxis\": {\"backgroundcolor\": \"#E5ECF6\", \"gridcolor\": \"white\", \"gridwidth\": 2, \"linecolor\": \"white\", \"showbackground\": true, \"ticks\": \"\", \"zerolinecolor\": \"white\"}, \"zaxis\": {\"backgroundcolor\": \"#E5ECF6\", \"gridcolor\": \"white\", \"gridwidth\": 2, \"linecolor\": \"white\", \"showbackground\": true, \"ticks\": \"\", \"zerolinecolor\": \"white\"}}, \"shapedefaults\": {\"line\": {\"color\": \"#2a3f5f\"}}, \"ternary\": {\"aaxis\": {\"gridcolor\": \"white\", \"linecolor\": \"white\", \"ticks\": \"\"}, \"baxis\": {\"gridcolor\": \"white\", \"linecolor\": \"white\", \"ticks\": \"\"}, \"bgcolor\": \"#E5ECF6\", \"caxis\": {\"gridcolor\": \"white\", \"linecolor\": \"white\", \"ticks\": \"\"}}, \"title\": {\"x\": 0.05}, \"xaxis\": {\"automargin\": true, \"gridcolor\": \"white\", \"linecolor\": \"white\", \"ticks\": \"\", \"title\": {\"standoff\": 15}, \"zerolinecolor\": \"white\", \"zerolinewidth\": 2}, \"yaxis\": {\"automargin\": true, \"gridcolor\": \"white\", \"linecolor\": \"white\", \"ticks\": \"\", \"title\": {\"standoff\": 15}, \"zerolinecolor\": \"white\", \"zerolinewidth\": 2}}}, \"width\": 700},\n","                        {\"responsive\": true}\n","                    ).then(function(){\n","                            \n","var gd = document.getElementById('69af4b02-edf6-420e-88e8-b148620a8f04');\n","var x = new MutationObserver(function (mutations, observer) {{\n","        var display = window.getComputedStyle(gd).display;\n","        if (!display || display === 'none') {{\n","            console.log([gd, 'removed!']);\n","            Plotly.purge(gd);\n","            observer.disconnect();\n","        }}\n","}});\n","\n","// Listen for the removal of the full notebook cells\n","var notebookContainer = gd.closest('#notebook-container');\n","if (notebookContainer) {{\n","    x.observe(notebookContainer, {childList: true});\n","}}\n","\n","// Listen for the clearing of the current output cell\n","var outputEl = gd.closest('.output');\n","if (outputEl) {{\n","    x.observe(outputEl, {childList: true});\n","}}\n","\n","                        })\n","                };\n","                \n","            </script>\n","        </div>\n","</body>\n","</html>"]},"metadata":{"tags":[]}}]}]}